digraph Tree {
node [shape=box, style="filled, rounded", color="black", fontname="helvetica"] ;
edge [fontname="helvetica"] ;
0 [label="number_of_visitors <= 18272.0\nsquared_error = 19611633689.0\nsamples = 100.0%\nvalue = 532303.03", fillcolor="#f5cdb1"] ;
1 [label="number_of_visitors <= 1045.0\nsquared_error = 637961483.87\nsamples = 13.0%\nvalue = 683308.64", fillcolor="#e89153"] ;
0 -> 1 [labeldistance=2.5, labelangle=45, headlabel="True"] ;
2 [label="squared_error = 300463479.78\nsamples = 8.7%\nvalue = 674088.67", fillcolor="#e99559"] ;
1 -> 2 ;
3 [label="squared_error = 52758432.25\nsamples = 4.3%\nvalue = 724798.5", fillcolor="#e58139"] ;
1 -> 3 ;
4 [label="number_of_visitors <= 115645.0\nsquared_error = 18105123835.77\nsamples = 87.0%\nvalue = 504149.44", fillcolor="#f7d9c3"] ;
0 -> 4 [labeldistance=2.5, labelangle=-45, headlabel="False"] ;
5 [label="squared_error = 20472242719.0\nsamples = 13.0%\nvalue = 407458.5", fillcolor="#ffffff"] ;
4 -> 5 ;
6 [label="squared_error = 16037235467.95\nsamples = 73.9%\nvalue = 519316.65", fillcolor="#f6d3b9"] ;
4 -> 6 ;
}