digraph Tree {
node [shape=box, style="filled, rounded", color="black", fontname="helvetica"] ;
edge [fontname="helvetica"] ;
0 [label="number_of_visitors <= 211337.5\nsquared_error = 15429380852.52\nsamples = 100.0%\nvalue = 502542.93", fillcolor="#f3c5a3"] ;
1 [label="number_of_visitors <= 153426.0\nsquared_error = 2003460853.35\nsamples = 48.7%\nvalue = 385139.73", fillcolor="#fdf3ed"] ;
0 -> 1 [labeldistance=2.5, labelangle=45, headlabel="True"] ;
2 [label="squared_error = 778931296.48\nsamples = 28.2%\nvalue = 355832.88", fillcolor="#ffffff"] ;
1 -> 2 ;
3 [label="squared_error = 389718276.81\nsamples = 20.5%\nvalue = 432030.7", fillcolor="#f9e1cf"] ;
1 -> 3 ;
4 [label="number_of_visitors <= 261652.0\nsquared_error = 5433676375.27\nsamples = 51.3%\nvalue = 601010.13", fillcolor="#eb9d65"] ;
0 -> 4 [labeldistance=2.5, labelangle=-45, headlabel="False"] ;
5 [label="squared_error = 3539719278.15\nsamples = 33.3%\nvalue = 562043.45", fillcolor="#eead7e"] ;
4 -> 5 ;
6 [label="squared_error = 1096992697.5\nsamples = 17.9%\nvalue = 671858.64", fillcolor="#e58139"] ;
4 -> 6 ;
}