digraph Tree {
node [shape=box, style="filled, rounded", color="black", fontname="helvetica"] ;
edge [fontname="helvetica"] ;
0 [label="number_of_visitors <= 123741.5\nsquared_error = 12757849907.72\nsamples = 100.0%\nvalue = 497593.18", fillcolor="#f2c09c"] ;
1 [label="number_of_visitors <= 109130.0\nsquared_error = 8352713.56\nsamples = 8.8%\nvalue = 336471.33", fillcolor="#fffefe"] ;
0 -> 1 [labeldistance=2.5, labelangle=45, headlabel="True"] ;
2 [label="squared_error = 1563750.25\nsamples = 5.9%\nvalue = 334559.5", fillcolor="#ffffff"] ;
1 -> 2 ;
3 [label="squared_error = 0.0\nsamples = 2.9%\nvalue = 340295.0", fillcolor="#fffdfc"] ;
1 -> 3 ;
4 [label="number_of_visitors <= 160029.5\nsquared_error = 11943795084.98\nsamples = 91.2%\nvalue = 506544.39", fillcolor="#f1bd97"] ;
0 -> 4 [labeldistance=2.5, labelangle=-45, headlabel="False"] ;
5 [label="squared_error = 1951405567.04\nsamples = 11.8%\nvalue = 661040.6", fillcolor="#e58139"] ;
4 -> 5 ;
6 [label="squared_error = 10279273650.17\nsamples = 79.4%\nvalue = 490779.47", fillcolor="#f3c3a0"] ;
4 -> 6 ;
}