digraph Tree {
node [shape=box, style="filled, rounded", color="black", fontname="helvetica"] ;
edge [fontname="helvetica"] ;
0 [label="number_of_visitors <= 558176.5\nsquared_error = 989500600.68\nsamples = 100.0%\nvalue = 704334.94", fillcolor="#f9e1cf"] ;
1 [label="number_of_visitors <= 92408.0\nsquared_error = 699042826.23\nsamples = 81.8%\nvalue = 697247.36", fillcolor="#fbebe0"] ;
0 -> 1 [labeldistance=2.5, labelangle=45, headlabel="True"] ;
2 [label="squared_error = 521860999.29\nsamples = 63.6%\nvalue = 702523.9", fillcolor="#f9e3d4"] ;
1 -> 2 ;
3 [label="squared_error = 898380729.0\nsamples = 18.2%\nvalue = 684056.0", fillcolor="#ffffff"] ;
1 -> 3 ;
4 [label="number_of_visitors <= 573239.5\nsquared_error = 209612484.0\nsamples = 18.2%\nvalue = 753948.0", fillcolor="#e9975b"] ;
0 -> 4 [labeldistance=2.5, labelangle=-45, headlabel="False"] ;
5 [label="squared_error = 0.0\nsamples = 9.1%\nvalue = 768426.0", fillcolor="#e58139"] ;
4 -> 5 ;
6 [label="squared_error = 0.0\nsamples = 9.1%\nvalue = 739470.0", fillcolor="#eeac7d"] ;
4 -> 6 ;
}